svm_type C_SVC
kernel_type LINEAR
nr_class 2
total_sv 20
rho -0.003302
label 1 -1
nr_sv 10 10
SV
0.946044 1:0.242059 2:-0.733081
1.000000 1:0.217371 2:0.094167
1.000000 1:0.188172 2:0.806378
1.000000 1:0.226004 2:-0.298898
1.000000 1:0.221063 2:0.523264
1.000000 1:0.082597 2:0.693807
1.000000 1:0.093807 2:-0.090671
1.000000 1:0.239957 2:0.609093
1.000000 1:0.154959 2:-0.238906
1.000000 1:0.135494 2:-0.691186
-1.000000 1:-0.167188 2:0.418955
-1.000000 1:-0.136377 2:0.506110
-1.000000 1:-0.236580 2:0.014833
-1.000000 1:-0.180114 2:-0.519502
-1.000000 1:-0.156792 2:0.614141
-1.000000 1:-0.151990 2:-0.029923
-1.000000 1:-0.139318 2:-0.331340
-1.000000 1:-0.144923 2:0.093487
-0.946044 1:-0.238686 2:0.851235
-1.000000 1:-0.306626 2:-0.698913
